%YAML:1.0
---
opencv_ml_svm:
   format: 3
   svmType: C_SVC
   kernel:
      type: LINEAR
   C: 1.
   term_criteria: { epsilon:1.1920928955078125e-07, iterations:1000 }
   var_count: 12
   class_count: 2
   class_labels: !!opencv-matrix
      rows: 2
      cols: 1
      dt: i
      data: [ -1, 1 ]
   sv_total: 1
   support_vectors:
      - [ -2.43819430e-02, 1.55161796e-02, 5.07437298e-03,
          -2.61770915e-02, 1.61256418e-02, 5.59105817e-03,
          -1.97781138e-02, 1.45879919e-02, 3.71026900e-03,
          -9.02330503e-04, 1.10713707e-03, -2.04804761e-04 ]
   uncompressed_sv_total: 11
   uncompressed_support_vectors:
      - [ 1.97137543e+02, 1.95598511e+02, 2.05438660e+02, 8.77808228e+01,
          6.00410957e+01, 7.77808228e+01, 1.45879303e+02, 9.21724167e+01,
          1.17241379e+02, 1.71487503e+02, 4.65374985e+01, 3.69749985e+01 ]
      - [ 1.93506489e+01, 2.39480515e+01, 4.01753235e+01, 2.27074081e+02,
          2.33506180e+02, 2.42975311e+02, 1.76006058e+02, 1.82618179e+02,
          1.93418182e+02, 9.81750031e+01, 5.16375008e+01, 1.05187500e+02 ]
      - [ 1.82216339e+02, 1.86788467e+02, 1.92927887e+02, 8.33593750e+00,
          1.08671875e+01, 1.72031250e+01, 9.60781250e+01, 8.81562500e+01,
          8.72500000e+01, 1.32600006e+02, 8.15999985e+01, 4.07999992e+01 ]
      - [ 1.85724777e+02, 1.91623856e+02, 1.98146790e+02, 9.93606567e+01,
          1.03622948e+02, 1.14573769e+02, 1.01239672e+01, 1.35206614e+01,
          2.43471069e+01, 1.38975006e+02, 3.88875008e+01, 7.71374969e+01 ]
      - [ 1.60271179e+02, 1.24677963e+02, 1.48288132e+02, 2.04344269e+02,
          1.97692627e+02, 2.10045074e+02, 1.16845360e+02, 7.89175262e+01,
          1.03226807e+02, 3.76124992e+01, 1.55550003e+02, 6.18375015e+01 ]
      - [ 1.43227280e+02, 8.89696960e+01, 1.18143936e+02, 1.94243652e+02,
          1.92065994e+02, 2.04197968e+02, 2.27647888e+02, 2.12169022e+02,
          2.28112671e+02, 8.41500015e+01, 1.25587502e+02, 4.52625008e+01 ]
      - [ 2.04974792e+02, 2.02789917e+02, 2.12651260e+02, 1.55500000e+02,
          1.23466667e+02, 1.42233337e+02, 9.91764679e+01, 6.60294113e+01,
          8.59215698e+01, 1.51725006e+02, 3.82500000e+01, 6.50250015e+01 ]
      - [ 1.77674820e+02, 1.76423080e+02, 1.83629364e+02, 1.14901405e+02,
          5.41549301e+01, 7.44647903e+01, 3.33023262e+01, 1.36046515e+01,
          2.20232563e+01, 1.82324997e+02, 4.52625008e+01, 2.74125004e+01 ]
      - [ 1.76949722e+02, 1.81636871e+02, 1.87754196e+02, 1.78881588e+01,
          20., 2.63092098e+01, 2.36086960e+02, 2.39202896e+02,
          2.43463776e+02, 1.14112503e+02, 9.69000015e+01, 4.39874992e+01 ]
      - [ 1.55017548e+02, 1.16280701e+02, 1.35719299e+02, 8.03367310e+01,
          3.54795914e+01, 5.72959175e+01, 2.03285721e+02, 1.99465302e+02,
          2.08791840e+02, 3.63375015e+01, 6.24749985e+01, 1.56187500e+02 ]
      - [ 2.35984619e+02, 2.39815384e+02, 2.46261536e+02, 2.24379559e+01,
          2.57737217e+01, 3.86131401e+01, 1.79666672e+02, 1.84161621e+02,
          1.92363632e+02, 4.14375000e+01, 8.73375015e+01, 1.26224998e+02 ]
   decision_functions:
      -
         sv_count: 1
         rho: -1.8506935591405758e+00
         alpha: [ 1. ]
         index: [ 0 ]
