%YAML:1.0
---
opencv_ml_svm:
   format: 3
   svmType: C_SVC
   kernel:
      type: LINEAR
   C: 1.
   term_criteria: { epsilon:1.1920928955078125e-07, iterations:1000 }
   var_count: 12
   class_count: 2
   class_labels: !!opencv-matrix
      rows: 2
      cols: 1
      dt: i
      data: [ -1, 1 ]
   sv_total: 1
   support_vectors:
      - [ -2.08656434e-02, 7.84768984e-02, -5.54814972e-02,
          -2.85391826e-02, 5.02521880e-02, -2.77146883e-02,
          -6.38778042e-03, 7.62780681e-02, -6.58249334e-02,
          -8.06531112e-04, -2.24563890e-04, 1.03102054e-03 ]
   uncompressed_sv_total: 33
   uncompressed_support_vectors:
      - [ 1.91064819e+02, 1.82601852e+02, 1.91185181e+02, 1.05985985e+02,
          5.90607491e+01, 6.27663536e+01, 1.50743591e+02, 1.08371796e+02,
          1.21666664e+02, 6.88499985e+01, 1.36425003e+02, 4.97249985e+01 ]
      - [ 9.51666641e+01, 9.92291641e+01, 1.16916664e+02, 1.92518829e+02,
          1.97673645e+02, 2.06698746e+02, 1.60088501e+01, 1.90530968e+01,
          3.64424782e+01, 3.06000004e+01, 1.52362503e+02, 7.20374985e+01 ]
      - [ 1.98036194e+02, 2.05705887e+02, 2.15981903e+02, 8.77014923e+01,
          9.61940308e+01, 1.18865669e+02, 3.03303566e+01, 3.78928566e+01,
          5.81964302e+01, 1.40887497e+02, 4.27125015e+01, 7.14000015e+01 ]
      - [ 1.76689651e+02, 1.74500000e+02, 1.81206894e+02, 1.27062073e+02,
          9.40758591e+01, 9.34896545e+01, 9.70864182e+01, 5.88888893e+01,
          6.42222214e+01, 1.10925003e+02, 9.24375000e+01, 5.16375008e+01 ]
      - [ 1.61087723e+02, 1.18052635e+02, 1.42350876e+02, 9.76176453e+01,
          4.81764717e+01, 7.44215698e+01, 2.01917007e+02, 1.98435684e+02,
          2.10979248e+02, 3.63375015e+01, 6.50250015e+01, 1.53637497e+02 ]
      - [ 1.26737701e+02, 9.53967209e+01, 7.03606567e+01, 1.92785721e+02,
          1.27785713e+02, 1.42428574e+02, 1.09493828e+02, 6.51234589e+01,
          61., 1.94437500e+02, 8.92500019e+00, 5.16375008e+01 ]
      - [ 9.36200027e+01, 1.02300003e+02, 1.21500000e+02, 2.00008301e+02,
          2.08668045e+02, 2.19697098e+02, 2.12110100e+01, 2.91743126e+01,
          4.88348618e+01, 3.18750000e+01, 1.53637497e+02, 6.94875031e+01 ]
      - [ 1.94251068e+02, 2.00480850e+02, 2.07178726e+02, 9.57083359e+01,
          1.03166664e+02, 1.17083336e+02, 1.21025639e+01, 1.77606831e+01,
          3.33589745e+01, 1.49812500e+02, 3.06000004e+01, 7.45875015e+01 ]
      - [ 1.76363632e+02, 1.19181816e+02, 1.47376617e+02, 1.25123291e+02,
          9.04383545e+01, 1.10945206e+02, 2.18455994e+02, 2.18692001e+02,
          2.28572006e+02, 4.90875015e+01, 4.65374985e+01, 1.59375000e+02 ]
      - [ 1.42435898e+02, 1.03051285e+02, 1.17179489e+02, 8.91391296e+01,
          2.32260876e+01, 4.33304329e+01, 1.85735779e+02, 1.78947159e+02,
          1.87430893e+02, 2.48624992e+01, 7.33125000e+01, 1.56824997e+02 ]
      - [ 1.43403229e+02, 9.61451645e+01, 1.17209679e+02, 8.65591431e+01,
          4.23118286e+01, 6.29677429e+01, 1.90812241e+02, 1.85028564e+02,
          1.93697952e+02, 3.95250015e+01, 5.92874985e+01, 1.56187500e+02 ]
      - [ 1.17942223e+02, 8.54844437e+01, 7.61822205e+01, 1.93211868e+02,
          1.91076279e+02, 2.00567795e+02, 1.63438599e+02, 1.24228073e+02,
          1.44877197e+02, 1.43437500e+02, 7.52249985e+01, 3.63375015e+01 ]
      - [ 1.77674820e+02, 1.76423080e+02, 1.83629364e+02, 1.14901405e+02,
          5.41549301e+01, 7.44647903e+01, 3.33023262e+01, 1.36046515e+01,
          2.20232563e+01, 1.82324997e+02, 4.52625008e+01, 2.74125004e+01 ]
      - [ 1.98191574e+02, 1.88762451e+02, 2.00421463e+02, 6.00972214e+01,
          1.95833340e+01, 3.94027786e+01, 1.43626862e+02, 7.80149231e+01,
          1.03746269e+02, 1.66387497e+02, 4.59000015e+01, 4.27125015e+01 ]
      - [ 1.43227280e+02, 8.89696960e+01, 1.18143936e+02, 2.27647888e+02,
          2.12169022e+02, 2.28112671e+02, 1.94243652e+02, 1.92065994e+02,
          2.04197968e+02, 8.41500015e+01, 4.52625008e+01, 1.25587502e+02 ]
      - [ 8.66293106e+01, 3.80517235e+01, 5.06982765e+01, 1.62606674e+02,
          1.44979996e+02, 1.53940002e+02, 1.22074623e+02, 8.25074615e+01,
          8.18582077e+01, 7.39499969e+01, 9.56250000e+01, 8.54250031e+01 ]
      - [ 2.06422134e+02, 2.03032791e+02, 2.11549179e+02, 8.94642868e+01,
          5.00714302e+01, 6.93333359e+01, 1.60819443e+02, 1.07791664e+02,
          1.32791672e+02, 1.55550003e+02, 5.35499992e+01, 4.59000015e+01 ]
      - [ 1.32595505e+02, 9.47752838e+01, 1.17078651e+02, 2.11189072e+02,
          2.06155457e+02, 2.17315125e+02, 1.73547943e+02, 1.33671234e+02,
          1.56246582e+02, 5.67374992e+01, 1.51725006e+02, 4.65374985e+01 ]
      - [ 1.24604935e+02, 7.09259262e+01, 9.01481476e+01, 1.71053940e+02,
          1.63029053e+02, 1.72327805e+02, 6.84102554e+01, 2.10384617e+01,
          3.77051277e+01, 5.16375008e+01, 1.53637497e+02, 4.97249985e+01 ]
      - [ 1.63933334e+02, 1.30644440e+02, 1.46266663e+02, 1.16731705e+02,
          7.76048813e+01, 7.91560974e+01, 1.91966660e+02, 1.87566666e+02,
          1.95493332e+02, 2.86875000e+01, 1.30687500e+02, 9.56250000e+01 ]
      - [ 1.11392044e+02, 7.51590881e+01, 7.92897720e+01, 1.68951462e+02,
          1.25077667e+02, 1.45951462e+02, 2.00363632e+02, 1.92504135e+02,
          2.02644623e+02, 1.12199997e+02, 6.56624985e+01, 7.71374969e+01 ]
      - [ 1.26212929e+02, 9.06653976e+01, 7.42129288e+01, 1.99734940e+02,
          1.90554214e+02, 2.01867477e+02, 9.16481476e+01, 3.15925922e+01,
          4.55740738e+01, 1.67662506e+02, 5.29124985e+01, 3.44249992e+01 ]
      - [ 1.71188278e+02, 1.61644348e+02, 1.70037659e+02, 6.75277786e+01,
          1.86666660e+01, 3.53750000e+01, 1.21370789e+02, 6.72471924e+01,
          8.59438171e+01, 1.52362503e+02, 4.59000015e+01, 5.67374992e+01 ]
      - [ 1.09446877e+02, 7.94718781e+01, 6.67156219e+01, 1.97309525e+02,
          1.82119049e+02, 1.92714279e+02, 1.59842102e+02, 1.17552635e+02,
          1.32526321e+02, 204., 2.67749996e+01, 2.42250004e+01 ]
      - [ 7.78988800e+01, 9.08314590e+01, 1.13764046e+02, 1.96981903e+02,
          2.08746613e+02, 2.17877823e+02, 2.22777786e+01, 3.29333344e+01,
          5.36666679e+01, 5.67374992e+01, 1.40887497e+02, 5.73750000e+01 ]
      - [ 8.03367310e+01, 3.54795914e+01, 5.72959175e+01, 2.03285721e+02,
          1.99465302e+02, 2.08791840e+02, 1.55017548e+02, 1.16280701e+02,
          1.35719299e+02, 6.24749985e+01, 1.56187500e+02, 3.63375015e+01 ]
      - [ 1.79258072e+02, 1.43677414e+02, 1.55967743e+02, 7.71904755e+01,
          2.10952377e+01, 3.45904770e+01, 1.06094063e+02, 7.00445557e+01,
          6.22475243e+01, 5.92874985e+01, 6.69375000e+01, 1.28774994e+02 ]
      - [ 2.19726028e+01, 3.24657516e+01, 5.49178085e+01, 1.95544357e+02,
          2.06133072e+02, 2.15967743e+02, 6.48987350e+01, 7.74303818e+01,
          9.97341766e+01, 4.65374985e+01, 1.58100006e+02, 5.03624992e+01 ]
      - [ 8.77808228e+01, 6.00410957e+01, 7.77808228e+01, 1.97137543e+02,
          1.95598511e+02, 2.05438660e+02, 1.45879303e+02, 9.21724167e+01,
          1.17241379e+02, 4.65374985e+01, 1.71487503e+02, 3.69749985e+01 ]
      - [ 1.49213120e+02, 1.12573769e+02, 1.26508194e+02, 1.89226898e+02,
          1.84621841e+02, 1.92210083e+02, 1.06981819e+02, 6.25090904e+01,
          6.47272720e+01, 3.88875008e+01, 7.58625031e+01, 1.40250000e+02 ]
      - [ 1.14460716e+02, 8.62214279e+01, 6.66107178e+01, 1.92978500e+02,
          1.76107529e+02, 1.85946243e+02, 8.72222214e+01, 2.00370369e+01,
          3.75925941e+01, 1.78500000e+02, 5.92874985e+01, 1.72124996e+01 ]
      - [ 1.96300476e+02, 1.88042252e+02, 2.01347412e+02, 1.30727280e+02,
          7.14958649e+01, 1.02661156e+02, 2.44106064e+02, 2.19621216e+02,
          2.39500000e+02, 1.35787506e+02, 7.71374969e+01, 4.20750008e+01 ]
      - [ 1.53235292e+01, 1.98235302e+01, 3.80808830e+01, 1.97804443e+02,
          2.03626663e+02, 2.17173340e+02, 9.97948685e+01, 1.05179489e+02,
          1.23435898e+02, 8.66999969e+01, 1.43437500e+02, 2.48624992e+01 ]
   decision_functions:
      -
         sv_count: 1
         rho: -3.4828673724919370e+00
         alpha: [ 1. ]
         index: [ 0 ]
