%YAML:1.0
---
opencv_ml_svm:
   format: 3
   svmType: C_SVC
   kernel:
      type: LINEAR
   C: 1.
   term_criteria: { epsilon:1.1920928955078125e-07, iterations:1000 }
   var_count: 12
   class_count: 2
   class_labels: !!opencv-matrix
      rows: 2
      cols: 1
      dt: i
      data: [ -1, 1 ]
   sv_total: 1
   support_vectors:
      - [ -1.88067220e-02, 1.08115347e-02, 3.67195043e-03,
          -2.34161131e-02, 1.51932798e-02, 3.82033736e-03,
          -2.57326011e-02, 1.98555961e-02, 4.54211235e-03,
          6.68015098e-04, -1.86834438e-03, 1.20033266e-03 ]
   uncompressed_sv_total: 9
   uncompressed_support_vectors:
      - [ 9.41515121e+01, 9.79242401e+01, 1.10909088e+02, 1.81600006e+02,
          1.87525589e+02, 1.93841858e+02, 1.13949575e+01, 1.40924368e+01,
          2.46974792e+01, 4.20750008e+01, 1.37062500e+02, 7.58625031e+01 ]
      - [ 1.97137543e+02, 1.95598511e+02, 2.05438660e+02, 8.77808228e+01,
          6.00410957e+01, 7.77808228e+01, 1.45879303e+02, 9.21724167e+01,
          1.17241379e+02, 1.71487503e+02, 4.65374985e+01, 3.69749985e+01 ]
      - [ 1.48241928e+02, 8.87741928e+01, 1.16016129e+02, 7.17011490e+01,
          1.86666660e+01, 4.10689659e+01, 1.99900406e+02, 1.88442230e+02,
          2.03123505e+02, 3.95250015e+01, 5.54625015e+01, 1.60012497e+02 ]
      - [ 1.82216339e+02, 1.86788467e+02, 1.92927887e+02, 8.33593750e+00,
          1.08671875e+01, 1.72031250e+01, 9.60781250e+01, 8.81562500e+01,
          8.72500000e+01, 1.32600006e+02, 8.15999985e+01, 4.07999992e+01 ]
      - [ 1.94243652e+02, 1.92065994e+02, 2.04197968e+02, 1.43227280e+02,
          8.89696960e+01, 1.18143936e+02, 2.27647888e+02, 2.12169022e+02,
          2.28112671e+02, 1.25587502e+02, 8.41500015e+01, 4.52625008e+01 ]
      - [ 1.55500000e+02, 1.23466667e+02, 1.42233337e+02, 2.04974792e+02,
          2.02789917e+02, 2.12651260e+02, 9.91764679e+01, 6.60294113e+01,
          8.59215698e+01, 3.82500000e+01, 1.51725006e+02, 6.50250015e+01 ]
      - [ 3.42045441e+01, 14., 2.27272720e+01, 1.77674820e+02,
          1.76423080e+02, 1.83629364e+02, 1.15500000e+02, 5.44857140e+01,
          7.47714310e+01, 2.80499992e+01, 1.82324997e+02, 4.46250000e+01 ]
      - [ 1.78881588e+01, 20., 2.63092098e+01, 1.76949722e+02,
          1.81636871e+02, 1.87754196e+02, 2.36086960e+02, 2.39202896e+02,
          2.43463776e+02, 9.69000015e+01, 1.14112503e+02, 4.39874992e+01 ]
      - [ 2.35984619e+02, 2.39815384e+02, 2.46261536e+02, 2.24379559e+01,
          2.57737217e+01, 3.86131401e+01, 1.79666672e+02, 1.84161621e+02,
          1.92363632e+02, 4.14375000e+01, 8.73375015e+01, 1.26224998e+02 ]
   decision_functions:
      -
         sv_count: 1
         rho: -2.0049163567309041e+00
         alpha: [ 1. ]
         index: [ 0 ]
